-0.054149,-0.094397,0.709006,-0.248151,-0.425573,-0.074447,-0.216563,0.498254,-0.372580,0.054201,0.093680,-0.932594,0.310956,-0.141020,-1.527693,-0.194960,1.319292,0.002981,-0.054079,-0.095377,-1.421619,-0.059923,-0.637863,-0.788496,0.790293,1.806470,-0.494469,-0.054145,-0.094459,-0.233829,-0.255205,0.337049,0.314046,-0.259101,0.077896,0.243857,0.054198,0.093720,-1.298310,-0.097629,-0.015362,-1.291982,0.291332,1.274700,-0.469882,0.054125,0.094743,0.102662,-0.541216,0.253261,0.593141,-0.097695,-0.753168,-0.215621,-0.054170,-0.094111,0.909631,0.014867,-0.170166,0.817551,-0.864683,-0.736193,0.299746,0.054205,0.093623,-0.939395,0.280407,-0.366964,-0.891924,0.424183,0.918192,0.142209,-0.227728,0.227740,-0.227711,-0.227727,0.227739,0.227722,-0.227733,0.227741,-0.054167,-0.094150,0.337206,0.159690,-0.060726,0.066622,-0.523686,-1.635826,-0.278478,-0.054057,-0.095685,-1.793068,0.170776,-0.290814,-1.855813,-0.336777,1.554862,-1.189570,0.054173,0.094068,-0.365814,0.227510,0.261629,0.366449,0.503667,0.636049,0.127634,-0.054177,-0.094012,1.145742,0.042552,0.460730,0.679524,-0.220126,-0.548892,-0.405000,-0.054163,-0.094202,0.321885,-0.138642,-0.062403,0.606595,-0.227178,-0.671392,-0.024539,-0.054124,-0.094754,-0.118409,0.126810,0.293593,-0.451335,-1.021755,0.341967,-0.465011,0.054267,0.092755,-1.772296,0.779702,-0.344531,-1.992244,-0.286058,2.103801,-0.952750,-0.054048,-0.095810,-2.184198,0.565906,-1.141912,-1.434280,0.063528,1.467651,-0.578400,-0.227732,-0.227706,0.227733,-0.227734,-0.227731,-0.227721,0.227756,-0.227703,-0.054104,-0.095031,-0.665177,0.459532,0.121042,-0.105719,0.200428,0.086677,-0.403064,0.054118,0.094832,0.550971,0.348149,0.483091,1.044204,-0.357213,0.097352,-0.010924,0.054184,0.093919,-0.865921,-0.049787,0.093219,-0.087355,0.820710,1.694840,0.569727,-0.054168,-0.094131,-0.063027,-0.278700,0.169186,0.011160,-0.609659,-0.886513,-0.218221,-0.054134,-0.094605,-0.635321,0.164774,0.634001,0.431172,0.164747,0.369607,-0.409360,0.054163,0.094210,-0.170197,0.302375,-0.044732,-0.104299,0.418037,0.826702,-0.417775,-0.054159,-0.094264,0.295356,-0.099584,-0.232786,0.281757,-0.590664,-0.462942,-0.155121,-0.054130,-0.094669,0.151024,-0.359739,0.033385,0.068599,0.065468,0.935990,0.651193,-0.227717,0.227720,0.227736,-0.227732,-0.227724,0.227731,-0.227730,-0.227723,0.054152,0.094364,0.176704,0.390149,-0.749372,-0.675261,-0.438648,0.578424,-0.486777,-0.054121,-0.094790,-0.553845,-0.305097,-0.123810,-0.290806,-0.849011,0.168749,-0.148854,0.054130,0.094665,0.109742,0.341772,-0.442582,0.128225,-0.020478,0.151752,0.547047,0.054171,0.094094,-0.158172,0.487348,-0.439334,-1.221065,0.693961,1.329736,0.461820,0.054223,0.093369,-1.438901,-0.075125,-0.730292,-1.230585,1.060750,2.859343,0.176972,0.054254,0.092940,-2.116285,0.267028,-1.300815,-2.232549,1.021833,3.234932,0.157927,-0.054230,-0.093264,1.159815,-0.684726,0.328960,1.184245,-0.416621,-1.672176,0.441063,-0.054122,-0.094781,-0.875907,0.255017,0.563545,-0.568423,-0.209111,0.259527,-0.097792,0.227728,-0.227721,0.227723,0.227733,0.227745,0.227753,-0.227747,-0.227721,